{
  "results": {
    "mlp_input": {
      "name": "MLP Input",
      "dim": 768,
      "top1": 19.875,
      "top10": [
        19.875,
        19.859375,
        19.859375,
        19.859375,
        19.859375,
        19.859375,
        19.859375,
        19.859375,
        19.859375,
        19.84375
      ],
      "median": 0.10699462890625,
      "mean": 0.13951566448020508,
      "ratio": 185.75698802053623,
      "top_dims_indices": null,
      "top_dims_values": null,
      "dim447_max": 0.6171875,
      "dim138_max": 19.875
    },
    "after_linear1": {
      "name": "After Linear1",
      "dim": 3072,
      "top1": 62.90625,
      "top10": [
        62.90625,
        62.875,
        62.84375,
        62.84375,
        62.8125,
        62.8125,
        62.8125,
        62.78125,
        62.78125,
        62.75
      ],
      "median": 1.0009765625,
      "mean": 1.135491545444006,
      "ratio": 62.84487804878049,
      "top_dims_indices": [
        666,
        1825,
        3034,
        2991,
        714,
        642,
        1974,
        2053,
        1692,
        2714,
        1015,
        732,
        2354,
        1627,
        1509,
        954,
        814,
        3020,
        1200,
        281
      ],
      "top_dims_values": [
        62.90625,
        58.96875,
        36.0,
        16.328125,
        13.2265625,
        12.484375,
        11.953125,
        10.8984375,
        10.3671875,
        9.890625,
        8.765625,
        8.6171875,
        8.4765625,
        8.203125,
        8.046875,
        7.984375,
        7.859375,
        7.84375,
        7.79296875,
        7.6328125
      ],
      "dim447_max": 0.6171875,
      "dim138_max": 19.875
    },
    "after_gelu": {
      "name": "After GELU",
      "dim": 3072,
      "top1": 62.90625,
      "top10": [
        62.90625,
        62.875,
        62.84375,
        62.84375,
        62.8125,
        62.8125,
        62.8125,
        62.78125,
        62.78125,
        62.75
      ],
      "median": 0.09918212890625,
      "mean": 0.10879323839210618,
      "ratio": 634.2498461538462,
      "top_dims_indices": [
        666,
        1825,
        3034,
        2714,
        183,
        1417,
        676,
        2754,
        2830,
        1419,
        14,
        352,
        880,
        191,
        1195,
        2326,
        1227,
        274,
        1054,
        1086
      ],
      "top_dims_values": [
        62.90625,
        58.96875,
        19.703125,
        9.890625,
        6.6484375,
        6.33984375,
        5.921875,
        5.58984375,
        5.16015625,
        5.140625,
        5.03125,
        4.984375,
        4.90625,
        4.69140625,
        4.6015625,
        4.44921875,
        4.4296875,
        4.42578125,
        4.41015625,
        4.40234375
      ],
      "dim447_max": 0.6171875,
      "dim138_max": 19.875
    },
    "mlp_output": {
      "name": "MLP Output",
      "dim": 768,
      "top1": 2342.0,
      "top10": [
        2342.0,
        2340.0,
        2340.0,
        2338.0,
        2336.0,
        2336.0,
        2336.0,
        2336.0,
        2334.0,
        2334.0
      ],
      "median": 0.2724609375,
      "mean": 0.3504759700616938,
      "ratio": 8595.72759856631,
      "top_dims_indices": null,
      "top_dims_values": null,
      "dim447_max": 2342.0,
      "dim138_max": 97.375
    }
  },
  "weight_analysis": {
    "W1_shape": [
      768,
      3072
    ],
    "W2_shape": [
      3072,
      768
    ],
    "W1_max": 10.5546875,
    "W1_mean": 0.10284423828125,
    "W2_max": 15.0703125,
    "W2_mean": 0.0694580078125,
    "top_contributors_447": [
      496,
      681,
      732,
      21,
      231,
      31,
      260,
      9,
      373,
      255,
      758,
      179,
      409,
      343,
      205,
      491,
      637,
      75,
      497,
      611
    ],
    "top_weights_447": [
      -0.298583984375,
      -0.2294921875,
      -0.22314453125,
      -0.218994140625,
      0.218994140625,
      -0.2177734375,
      -0.2032470703125,
      0.202392578125,
      -0.1981201171875,
      0.1964111328125,
      -0.19482421875,
      -0.194580078125,
      -0.1888427734375,
      -0.1826171875,
      -0.1802978515625,
      0.1763916015625,
      -0.1749267578125,
      -0.174560546875,
      -0.17431640625,
      0.1741943359375
    ],
    "top_contributors_138": [
      447,
      129,
      218,
      640,
      639,
      670,
      46,
      39,
      342,
      96,
      134,
      232,
      121,
      225,
      433,
      665,
      166,
      249,
      637,
      500
    ],
    "top_weights_138": [
      0.419921875,
      0.306884765625,
      -0.28466796875,
      0.273681640625,
      0.2415771484375,
      -0.2386474609375,
      0.2344970703125,
      0.2318115234375,
      0.227294921875,
      0.2095947265625,
      -0.2086181640625,
      -0.2047119140625,
      0.2015380859375,
      0.2010498046875,
      -0.19677734375,
      0.196044921875,
      -0.19580078125,
      0.195556640625,
      0.1929931640625,
      -0.1927490234375
    ],
    "w_dim447_full": [
      0.048583984375,
      0.0899658203125,
      0.1295166015625,
      0.0758056640625,
      0.06524658203125,
      -0.0189666748046875,
      -0.09454345703125,
      0.04248046875,
      0.11358642578125,
      0.202392578125,
      0.08404541015625,
      -0.03387451171875,
      0.0159912109375,
      -0.07257080078125,
      0.0202178955078125,
      -0.0028629302978515625,
      0.039825439453125,
      0.01325225830078125,
      0.1727294921875,
      -0.098388671875,
      -0.00823211669921875,
      -0.218994140625,
      -0.031097412109375,
      -0.058135986328125,
      -0.01329803466796875,
      0.01248931884765625,
      -0.1243896484375,
      -0.0014333724975585938,
      0.08233642578125,
      0.0106964111328125,
      -0.005161285400390625,
      -0.2177734375,
      0.003383636474609375,
      -0.09552001953125,
      -0.055572509765625,
      0.00556182861328125,
      -0.0003409385681152344,
      -0.09716796875,
      -0.154296875,
      0.0292816162109375,
      -0.07220458984375,
      0.0300445556640625,
      -0.028564453125,
      0.07147216796875,
      -0.006805419921875,
      0.0231781005859375,
      0.1363525390625,
      -0.0309906005859375,
      0.06622314453125,
      -0.011566162109375,
      -0.0240631103515625,
      0.0372314453125,
      0.0159759521484375,
      -0.13134765625,
      -0.0423583984375,
      0.03790283203125,
      -0.0120086669921875,
      -0.0259857177734375,
      -0.008148193359375,
      0.0179443359375,
      0.06439208984375,
      0.07318115234375,
      -0.034637451171875,
      -0.0091400146484375,
      0.0006747245788574219,
      0.054412841796875,
      -0.06658935546875,
      -0.121337890625,
      -0.0751953125,
      -0.155029296875,
      0.048980712890625,
      -0.0234832763671875,
      0.02471923828125,
      0.06903076171875,
      0.058197021484375,
      -0.174560546875,
      0.08404541015625,
      -0.0606689453125,
      0.04931640625,
      0.0772705078125,
      0.02691650390625,
      -0.07684326171875,
      -0.061492919921875,
      0.041656494140625,
      0.0025768280029296875,
      -0.03692626953125,
      0.0792236328125,
      0.0008268356323242188,
      -0.039642333984375,
      -0.169921875,
      0.038238525390625,
      0.005634307861328125,
      0.0704345703125,
      -0.045806884765625,
      0.00193023681640625,
      -0.009674072265625,
      -0.111572265625,
      0.004665374755859375,
      0.043975830078125,
      0.0716552734375,
      -0.01123046875,
      0.031463623046875,
      0.07525634765625,
      -0.1390380859375,
      -0.0286865234375,
      -0.006580352783203125,
      -0.0673828125,
      -0.1119384765625,
      0.054962158203125,
      0.081298828125,
      -0.096435546875,
      0.0880126953125,
      -0.0869140625,
      -0.0017852783203125,
      0.081298828125,
      0.0416259765625,
      0.03717041015625,
      0.0242156982421875,
      0.09814453125,
      -0.0450439453125,
      -0.113525390625,
      -0.0241546630859375,
      -0.0011167526245117188,
      0.0399169921875,
      0.07696533203125,
      0.005992889404296875,
      0.07611083984375,
      0.026947021484375,
      0.09796142578125,
      -0.07464599609375,
      0.0272216796875,
      0.0391845703125,
      -0.0028438568115234375,
      -0.010406494140625,
      -0.015869140625,
      0.08294677734375,
      -0.09246826171875,
      0.005199432373046875,
      -0.017578125,
      0.11004638671875,
      0.09368896484375,
      0.030914306640625,
      -0.0285491943359375,
      0.10528564453125,
      0.10546875,
      -0.0179290771484375,
      0.007747650146484375,
      0.0234832763671875,
      -0.121826171875,
      -0.0011625289916992188,
      0.1390380859375,
      -0.058502197265625,
      -0.036865234375,
      -0.043304443359375,
      0.03216552734375,
      0.004161834716796875,
      -0.01537322998046875,
      0.05133056640625,
      -0.0789794921875,
      -0.01178741455078125,
      0.04766845703125,
      0.09136962890625,
      0.03472900390625,
      0.0732421875,
      -0.0172271728515625,
      -0.01265716552734375,
      0.07305908203125,
      -0.114013671875,
      0.029388427734375,
      -0.06298828125,
      0.0955810546875,
      0.09234619140625,
      -0.156982421875,
      0.1461181640625,
      -0.01277923583984375,
      -0.11383056640625,
      -0.07696533203125,
      0.04718017578125,
      -0.02508544921875,
      -0.194580078125,
      -0.05535888671875,
      0.017974853515625,
      0.06298828125,
      -0.07562255859375,
      0.0828857421875,
      0.1387939453125,
      0.0693359375,
      0.1160888671875,
      0.1328125,
      -0.0172882080078125,
      -0.049591064453125,
      -0.104248046875,
      0.031768798828125,
      -0.07696533203125,
      0.1397705078125,
      0.1246337890625,
      -0.057098388671875,
      0.06719970703125,
      -0.0185089111328125,
      0.00015091896057128906,
      -0.03509521484375,
      -0.0618896484375,
      -0.01317596435546875,
      -0.06365966796875,
      0.0250091552734375,
      -0.1802978515625,
      -0.019561767578125,
      0.01160430908203125,
      0.004177093505859375,
      0.09320068359375,
      0.0017061233520507812,
      0.052154541015625,
      0.009246826171875,
      -0.12481689453125,
      -0.0070953369140625,
      -0.037445068359375,
      -0.02447509765625,
      -0.056549072265625,
      0.08306884765625,
      0.0556640625,
      0.01222991943359375,
      -0.03643798828125,
      -0.09527587890625,
      -0.01947021484375,
      0.09613037109375,
      0.12371826171875,
      -0.126220703125,
      -0.165771484375,
      0.006755828857421875,
      0.10845947265625,
      0.1416015625,
      0.218994140625,
      -0.0106658935546875,
      0.0439453125,
      -0.078369140625,
      -0.0819091796875,
      -0.01485443115234375,
      0.029083251953125,
      -0.124755859375,
      0.024169921875,
      0.05352783203125,
      -0.1552734375,
      0.011474609375,
      -0.03521728515625,
      0.00232696533203125,
      -0.09332275390625,
      0.05987548828125,
      0.0323486328125,
      -0.06158447265625,
      0.1641845703125,
      0.0133209228515625,
      -0.08551025390625,
      0.045654296875,
      0.0845947265625,
      -0.0540771484375,
      0.1964111328125,
      0.0275726318359375,
      0.05523681640625,
      -0.069091796875,
      -0.0309295654296875,
      -0.2032470703125,
      0.00289154052734375,
      0.0251007080078125,
      0.1090087890625,
      0.0174713134765625,
      -0.048828125,
      0.002536773681640625,
      -0.004840850830078125,
      -0.08209228515625,
      -0.0047760009765625,
      -0.0019006729125976562,
      0.0740966796875,
      0.062225341796875,
      0.04022216796875,
      0.014434814453125,
      -0.08154296875,
      -0.1334228515625,
      -0.02520751953125,
      -0.03466796875,
      -0.06048583984375,
      -0.00595855712890625,
      -0.0914306640625,
      -0.055511474609375,
      -0.0118255615234375,
      -0.053497314453125,
      -0.0193939208984375,
      -0.0196685791015625,
      0.07354736328125,
      0.10980224609375,
      0.11517333984375,
      0.1256103515625,
      0.00875091552734375,
      0.0191192626953125,
      -0.091064453125,
      0.0171051025390625,
      -0.077392578125,
      0.02960205078125,
      0.016204833984375,
      0.07952880859375,
      -0.0258636474609375,
      -0.039337158203125,
      -0.01534271240234375,
      -0.0931396484375,
      -0.10064697265625,
      0.0306396484375,
      -0.05645751953125,
      0.007266998291015625,
      0.147216796875,
      -0.07928466796875,
      0.11328125,
      -0.01222991943359375,
      0.1048583984375,
      0.10614013671875,
      0.043792724609375,
      0.08514404296875,
      -0.12213134765625,
      -0.09124755859375,
      0.0162811279296875,
      0.0004374980926513672,
      -0.11639404296875,
      -0.051055908203125,
      0.00971221923828125,
      0.024139404296875,
      -0.01219940185546875,
      0.1170654296875,
      -0.1114501953125,
      -0.020538330078125,
      -0.0799560546875,
      0.0677490234375,
      0.040069580078125,
      -0.018310546875,
      0.1416015625,
      -0.0533447265625,
      -0.1373291015625,
      0.09478759765625,
      -0.0654296875,
      0.09796142578125,
      0.040191650390625,
      -0.0184478759765625,
      -0.0965576171875,
      0.08673095703125,
      -0.091064453125,
      0.066650390625,
      -0.1826171875,
      -0.1407470703125,
      -0.033538818359375,
      0.00244140625,
      -0.0792236328125,
      0.0258941650390625,
      0.0291900634765625,
      0.080810546875,
      -0.017852783203125,
      0.08984375,
      -0.056427001953125,
      -0.09381103515625,
      0.05389404296875,
      0.14111328125,
      0.026458740234375,
      -0.034515380859375,
      -0.0226593017578125,
      0.130615234375,
      0.061309814453125,
      -0.01480865478515625,
      0.084228515625,
      0.0755615234375,
      0.052154541015625,
      -0.0018634796142578125,
      0.07659912109375,
      -0.0653076171875,
      0.051055908203125,
      -0.1375732421875,
      -0.021759033203125,
      -0.036712646484375,
      -0.1981201171875,
      -0.0906982421875,
      0.026947021484375,
      -0.0236053466796875,
      0.0201873779296875,
      -0.06695556640625,
      -0.00043463706970214844,
      0.1658935546875,
      0.06414794921875,
      -0.0452880859375,
      0.1292724609375,
      -0.0733642578125,
      -0.10443115234375,
      -0.100830078125,
      0.1044921875,
      -0.0924072265625,
      -0.0460205078125,
      -0.06658935546875,
      -0.06658935546875,
      0.0308990478515625,
      -0.0321044921875,
      0.0389404296875,
      0.0196685791015625,
      0.0811767578125,
      -0.043212890625,
      0.024658203125,
      -0.020416259765625,
      -0.076904296875,
      -0.13525390625,
      0.03570556640625,
      -0.0252532958984375,
      -0.11761474609375,
      -0.06060791015625,
      -0.03021240234375,
      -0.0030059814453125,
      -0.087890625,
      -0.1888427734375,
      0.00559234619140625,
      0.034698486328125,
      0.128662109375,
      0.005359649658203125,
      -0.038360595703125,
      -0.10650634765625,
      -0.04083251953125,
      0.073974609375,
      -0.083984375,
      0.076416015625,
      0.00453948974609375,
      -0.0848388671875,
      -0.0295867919921875,
      0.08447265625,
      0.0023345947265625,
      -0.0162811279296875,
      -0.0555419921875,
      0.07000732421875,
      -0.060882568359375,
      0.034332275390625,
      0.0119171142578125,
      0.045257568359375,
      0.10455322265625,
      0.164794921875,
      -0.049896240234375,
      -0.034881591796875,
      -0.042083740234375,
      -0.1717529296875,
      0.169677734375,
      0.01528167724609375,
      0.12249755859375,
      0.10626220703125,
      -0.08050537109375,
      0.099365234375,
      0.1544189453125,
      0.036163330078125,
      0.0543212890625,
      0.08404541015625,
      -0.027984619140625,
      -0.05914306640625,
      -0.0024051666259765625,
      -0.00018680095672607422,
      0.0721435546875,
      -0.1705322265625,
      -0.059722900390625,
      0.0875244140625,
      -0.01338958740234375,
      -0.0692138671875,
      0.0831298828125,
      0.1112060546875,
      -0.0002930164337158203,
      -0.10693359375,
      0.1083984375,
      0.1278076171875,
      -0.06573486328125,
      -0.06500244140625,
      -0.059234619140625,
      -0.0037784576416015625,
      0.071533203125,
      0.08758544921875,
      -0.056396484375,
      -0.01386260986328125,
      0.0682373046875,
      -0.0611572265625,
      -0.1395263671875,
      0.0020294189453125,
      -0.031524658203125,
      0.094970703125,
      0.0992431640625,
      -0.15673828125,
      -2.47955322265625e-05,
      -0.0150909423828125,
      -0.061065673828125,
      0.0635986328125,
      -0.05584716796875,
      0.056549072265625,
      -0.051300048828125,
      0.0042724609375,
      -0.037841796875,
      0.0513916015625,
      0.019775390625,
      0.1763916015625,
      0.0149688720703125,
      -0.1107177734375,
      -0.03350830078125,
      -0.0687255859375,
      -0.298583984375,
      -0.17431640625,
      0.1416015625,
      -0.017059326171875,
      -0.0382080078125,
      0.0063323974609375,
      -0.030914306640625,
      0.1446533203125,
      -0.0738525390625,
      0.0010042190551757812,
      -0.055877685546875,
      -0.1593017578125,
      0.055267333984375,
      0.057647705078125,
      0.0060882568359375,
      0.038116455078125,
      0.0775146484375,
      0.034271240234375,
      0.13720703125,
      0.0821533203125,
      -0.0012111663818359375,
      -0.07611083984375,
      0.0162353515625,
      0.038604736328125,
      0.09490966796875,
      -0.00896453857421875,
      0.06982421875,
      0.1739501953125,
      -0.0892333984375,
      0.0758056640625,
      -0.047698974609375,
      0.0255584716796875,
      -0.036834716796875,
      0.08612060546875,
      0.033935546875,
      0.091552734375,
      -0.00896453857421875,
      0.1273193359375,
      0.001983642578125,
      -0.036895751953125,
      -0.045501708984375,
      -0.08673095703125,
      -0.04522705078125,
      0.05670166015625,
      -0.005756378173828125,
      0.006641387939453125,
      -0.008758544921875,
      -0.1107177734375,
      -0.07293701171875,
      -0.07403564453125,
      -0.02081298828125,
      0.024871826171875,
      0.068115234375,
      0.02239990234375,
      0.1092529296875,
      0.07647705078125,
      -0.0310821533203125,
      -0.005886077880859375,
      0.044830322265625,
      -0.0233612060546875,
      0.01151275634765625,
      0.006908416748046875,
      0.0040435791015625,
      0.00011706352233886719,
      -0.05377197265625,
      0.0055694580078125,
      0.019012451171875,
      0.130126953125,
      -0.1666259765625,
      -0.046600341796875,
      -0.0090179443359375,
      0.06048583984375,
      -0.02630615234375,
      -0.06781005859375,
      -0.0225982666015625,
      0.0178375244140625,
      -0.08038330078125,
      -0.08819580078125,
      -0.03546142578125,
      0.0498046875,
      -0.082763671875,
      0.16943359375,
      0.00013363361358642578,
      0.1021728515625,
      -0.1611328125,
      -0.0278167724609375,
      0.142822265625,
      0.0662841796875,
      0.0477294921875,
      -0.0187835693359375,
      0.0247802734375,
      -0.009521484375,
      -0.0009002685546875,
      -0.05950927734375,
      -0.09869384765625,
      0.04290771484375,
      0.08551025390625,
      0.0132598876953125,
      0.02325439453125,
      -0.09552001953125,
      -0.040130615234375,
      0.153564453125,
      -0.08990478515625,
      -0.053863525390625,
      -0.05584716796875,
      0.043701171875,
      0.04534912109375,
      0.0472412109375,
      -0.0802001953125,
      0.0692138671875,
      0.03924560546875,
      -0.007175445556640625,
      0.11083984375,
      -0.0107269287109375,
      0.030975341796875,
      0.1741943359375,
      0.0201263427734375,
      0.157958984375,
      0.06500244140625,
      -0.060546875,
      0.039825439453125,
      -0.1685791015625,
      0.0596923828125,
      -0.07891845703125,
      0.1185302734375,
      -0.0933837890625,
      -0.1302490234375,
      -0.041412353515625,
      0.11651611328125,
      0.00814056396484375,
      0.058319091796875,
      0.1182861328125,
      -0.0599365234375,
      -0.06292724609375,
      -0.09759521484375,
      -0.00989532470703125,
      0.015838623046875,
      0.08050537109375,
      0.112060546875,
      0.09307861328125,
      -0.0345458984375,
      -0.1749267578125,
      0.07275390625,
      0.03662109375,
      0.0306243896484375,
      0.01050567626953125,
      -0.116455078125,
      0.05615234375,
      0.1085205078125,
      -0.024627685546875,
      0.10418701171875,
      -0.09063720703125,
      0.03466796875,
      -0.142822265625,
      -0.01207733154296875,
      0.039794921875,
      -0.09674072265625,
      0.0672607421875,
      -0.07928466796875,
      -0.020477294921875,
      -0.114990234375,
      0.013763427734375,
      -0.049407958984375,
      0.09197998046875,
      0.1351318359375,
      0.07470703125,
      0.0994873046875,
      0.0556640625,
      -0.012786865234375,
      -0.0164947509765625,
      0.07696533203125,
      0.09674072265625,
      -0.0828857421875,
      0.0709228515625,
      0.06781005859375,
      0.07916259765625,
      -0.0576171875,
      0.07403564453125,
      0.10443115234375,
      -0.04608154296875,
      0.0031147003173828125,
      0.051177978515625,
      -0.11383056640625,
      -0.0618896484375,
      0.0865478515625,
      -0.2294921875,
      -0.006427764892578125,
      0.0782470703125,
      0.0301361083984375,
      -0.060333251953125,
      -0.0026988983154296875,
      0.0833740234375,
      -0.0243072509765625,
      -0.169189453125,
      -0.01175689697265625,
      0.029510498046875,
      -0.07904052734375,
      0.06561279296875,
      -0.06927490234375,
      -0.0173187255859375,
      -0.1285400390625,
      -0.01340484619140625,
      -0.12249755859375,
      -0.006076812744140625,
      -0.023712158203125,
      0.10955810546875,
      0.0206451416015625,
      0.0108795166015625,
      -0.002086639404296875,
      0.0443115234375,
      -0.1572265625,
      -0.1085205078125,
      -0.1263427734375,
      -0.0210723876953125,
      -0.0306396484375,
      -0.06512451171875,
      0.01183319091796875,
      0.03546142578125,
      0.0198516845703125,
      0.05230712890625,
      0.1407470703125,
      -0.0526123046875,
      0.039886474609375,
      -0.06866455078125,
      0.0290679931640625,
      0.03759765625,
      0.009857177734375,
      0.0237579345703125,
      0.0200042724609375,
      -0.0689697265625,
      -0.14453125,
      0.04241943359375,
      -0.0208282470703125,
      0.05181884765625,
      -0.01611328125,
      -0.043731689453125,
      -0.22314453125,
      -0.0023899078369140625,
      -0.10418701171875,
      0.16943359375,
      0.064697265625,
      0.039276123046875,
      -0.0499267578125,
      -0.019378662109375,
      -0.04278564453125,
      0.0203399658203125,
      0.009674072265625,
      -0.026397705078125,
      0.163330078125,
      -0.043914794921875,
      0.0207977294921875,
      -0.0290679931640625,
      0.093994140625,
      0.0543212890625,
      -0.00469970703125,
      -0.013916015625,
      -0.148681640625,
      -0.10638427734375,
      -0.03472900390625,
      -0.06378173828125,
      0.0254058837890625,
      -0.07159423828125,
      -0.19482421875,
      -0.0037593841552734375,
      0.130859375,
      0.0023708343505859375,
      -0.009368896484375,
      -0.0231781005859375,
      -0.0919189453125,
      0.0831298828125,
      0.002674102783203125,
      0.0290374755859375
    ],
    "w_dim138_full": [
      -0.115234375,
      -0.032470703125,
      -0.1689453125,
      0.00785064697265625,
      -0.077392578125,
      -0.006954193115234375,
      0.0169219970703125,
      0.08148193359375,
      -0.0516357421875,
      -0.07000732421875,
      -0.032501220703125,
      -0.097412109375,
      0.015869140625,
      -0.0151824951171875,
      -0.0105133056640625,
      -0.049285888671875,
      0.04327392578125,
      0.06243896484375,
      -0.028839111328125,
      -0.04559326171875,
      0.0021076202392578125,
      -0.1307373046875,
      0.04254150390625,
      0.041900634765625,
      0.08843994140625,
      0.10430908203125,
      -0.047149658203125,
      0.0305633544921875,
      -0.0634765625,
      0.050537109375,
      -0.033416748046875,
      -0.039154052734375,
      -0.016326904296875,
      -0.053497314453125,
      0.0950927734375,
      -0.0504150390625,
      -0.1334228515625,
      -0.04107666015625,
      -0.1763916015625,
      0.2318115234375,
      0.11077880859375,
      -0.03497314453125,
      0.103271484375,
      0.064453125,
      0.0149383544921875,
      0.06878662109375,
      0.2344970703125,
      -0.04144287109375,
      0.1868896484375,
      -0.0311126708984375,
      -0.07012939453125,
      -0.1328125,
      -0.09808349609375,
      -0.070556640625,
      0.09912109375,
      0.0293731689453125,
      0.074951171875,
      -0.09417724609375,
      0.14501953125,
      -0.07830810546875,
      0.1475830078125,
      -0.06475830078125,
      0.0212554931640625,
      -0.10150146484375,
      0.0058135986328125,
      -0.096435546875,
      0.0948486328125,
      0.170166015625,
      0.05206298828125,
      0.089111328125,
      -0.0090484619140625,
      -0.0394287109375,
      -0.06964111328125,
      -0.0030975341796875,
      -0.142822265625,
      -0.042449951171875,
      0.10467529296875,
      -0.129150390625,
      -0.002960205078125,
      0.1439208984375,
      -0.052459716796875,
      -0.052764892578125,
      0.028778076171875,
      0.00443267822265625,
      0.08404541015625,
      -0.043670654296875,
      0.01134490966796875,
      0.005496978759765625,
      -0.08917236328125,
      0.137451171875,
      0.0643310546875,
      0.022796630859375,
      -0.0423583984375,
      -0.054779052734375,
      0.004058837890625,
      0.054779052734375,
      0.2095947265625,
      0.0036830902099609375,
      -0.052520751953125,
      0.0968017578125,
      -0.00823211669921875,
      0.0557861328125,
      -0.058258056640625,
      -0.0238800048828125,
      0.00769805908203125,
      0.034210205078125,
      -0.00183868408203125,
      0.0193634033203125,
      0.035369873046875,
      0.10479736328125,
      -0.0538330078125,
      -0.04632568359375,
      0.033660888671875,
      -0.07427978515625,
      0.09161376953125,
      -0.05224609375,
      -0.022705078125,
      -0.041290283203125,
      0.18017578125,
      -0.01490020751953125,
      0.11712646484375,
      0.2015380859375,
      -0.15869140625,
      0.0211639404296875,
      0.00728607177734375,
      -0.044219970703125,
      0.0185394287109375,
      0.1375732421875,
      -0.0166778564453125,
      0.306884765625,
      0.028564453125,
      0.0267333984375,
      0.05126953125,
      0.1290283203125,
      -0.2086181640625,
      -0.13037109375,
      0.03472900390625,
      0.0211334228515625,
      -0.0263671875,
      -0.07733154296875,
      -0.10577392578125,
      0.034820556640625,
      0.0169830322265625,
      0.0192413330078125,
      0.023590087890625,
      0.0023899078369140625,
      0.09893798828125,
      0.0200958251953125,
      -0.14697265625,
      -0.02423095703125,
      -0.1041259765625,
      -0.0433349609375,
      0.11541748046875,
      0.10211181640625,
      0.03704833984375,
      -0.101806640625,
      -0.11871337890625,
      0.031097412109375,
      0.0008320808410644531,
      0.05426025390625,
      0.1707763671875,
      -0.134521484375,
      -0.0164642333984375,
      -0.048583984375,
      -0.07354736328125,
      -0.0025959014892578125,
      -0.19580078125,
      0.0290985107421875,
      0.0009322166442871094,
      -0.014495849609375,
      0.0517578125,
      -0.077880859375,
      -0.003543853759765625,
      0.0823974609375,
      0.1015625,
      0.125244140625,
      -0.0298004150390625,
      0.003345489501953125,
      0.040985107421875,
      0.038116455078125,
      -0.058868408203125,
      -0.0002474784851074219,
      0.075927734375,
      0.004730224609375,
      0.12237548828125,
      -0.14599609375,
      -0.039459228515625,
      0.026275634765625,
      -0.0670166015625,
      0.03448486328125,
      -0.01129913330078125,
      0.0011911392211914062,
      0.0066070556640625,
      -0.11004638671875,
      -0.10821533203125,
      0.04217529296875,
      0.00946044921875,
      0.1885986328125,
      0.0821533203125,
      -0.0192108154296875,
      -0.135498046875,
      0.1590576171875,
      0.07598876953125,
      0.006252288818359375,
      0.01213836669921875,
      0.0135955810546875,
      -0.068115234375,
      -0.069091796875,
      0.02801513671875,
      -0.0716552734375,
      -0.07232666015625,
      -0.035736083984375,
      0.1092529296875,
      0.0205078125,
      0.0245513916015625,
      -0.1322021484375,
      -0.0716552734375,
      0.1358642578125,
      -0.28466796875,
      0.0229949951171875,
      0.037445068359375,
      0.0116119384765625,
      -0.0369873046875,
      -0.05865478515625,
      -0.042816162109375,
      0.2010498046875,
      0.0948486328125,
      -0.1585693359375,
      -0.0479736328125,
      0.105224609375,
      -0.07696533203125,
      0.0107879638671875,
      -0.2047119140625,
      -0.0108489990234375,
      0.0289764404296875,
      0.057708740234375,
      0.036956787109375,
      -0.01361846923828125,
      0.09124755859375,
      -0.064208984375,
      -0.0716552734375,
      0.05999755859375,
      0.0172119140625,
      -0.0496826171875,
      -0.08984375,
      -0.0797119140625,
      -0.017181396484375,
      -0.0028667449951171875,
      0.03564453125,
      0.195556640625,
      0.02587890625,
      0.050567626953125,
      -0.0472412109375,
      -0.1627197265625,
      -0.0762939453125,
      -0.0616455078125,
      0.0280914306640625,
      0.07208251953125,
      -0.134033203125,
      0.12481689453125,
      0.12005615234375,
      -0.056976318359375,
      0.1177978515625,
      0.0816650390625,
      -0.0577392578125,
      -0.05523681640625,
      -0.0048370361328125,
      0.04443359375,
      -0.05206298828125,
      -0.1431884765625,
      -0.01314544677734375,
      0.0208587646484375,
      -0.03021240234375,
      0.04925537109375,
      -0.0777587890625,
      0.1590576171875,
      -0.08709716796875,
      0.127685546875,
      -0.02740478515625,
      0.17236328125,
      0.02008056640625,
      -0.043487548828125,
      0.00797271728515625,
      -0.047821044921875,
      0.049560546875,
      -0.1708984375,
      -0.063232421875,
      0.10821533203125,
      0.0277862548828125,
      0.1051025390625,
      -0.001918792724609375,
      0.1134033203125,
      0.06781005859375,
      0.055908203125,
      -0.052703857421875,
      -0.03204345703125,
      -0.13671875,
      -0.1787109375,
      0.0799560546875,
      -0.058349609375,
      -0.025146484375,
      -0.15966796875,
      0.09271240234375,
      0.059844970703125,
      0.04656982421875,
      0.049713134765625,
      -0.0307159423828125,
      -0.0275421142578125,
      -0.026031494140625,
      -0.0184783935546875,
      -0.061248779296875,
      0.04180908203125,
      0.1143798828125,
      0.070556640625,
      -0.0181427001953125,
      -0.033538818359375,
      0.057525634765625,
      0.053985595703125,
      -0.048797607421875,
      -0.0229034423828125,
      0.0209808349609375,
      0.01885986328125,
      -0.04071044921875,
      -0.04278564453125,
      0.01004791259765625,
      0.02410888671875,
      0.05169677734375,
      -0.0712890625,
      0.114501953125,
      -0.01494598388671875,
      0.026397705078125,
      -0.02783203125,
      0.0867919921875,
      0.00028514862060546875,
      0.07501220703125,
      0.0625,
      0.0572509765625,
      0.04058837890625,
      0.056365966796875,
      -0.049652099609375,
      0.0592041015625,
      0.0119781494140625,
      0.227294921875,
      0.082275390625,
      0.084716796875,
      -0.07220458984375,
      0.0968017578125,
      -0.1463623046875,
      0.0141448974609375,
      -0.04437255859375,
      0.0955810546875,
      -0.0960693359375,
      -0.165283203125,
      -0.039794921875,
      0.16748046875,
      0.11822509765625,
      -0.123291015625,
      0.0811767578125,
      0.028076171875,
      -0.1328125,
      -0.002063751220703125,
      -0.00792694091796875,
      -0.005031585693359375,
      0.17236328125,
      0.12139892578125,
      -0.0877685546875,
      -0.041900634765625,
      -0.1212158203125,
      0.1407470703125,
      0.03253173828125,
      0.01352691650390625,
      0.041107177734375,
      -0.18359375,
      0.07867431640625,
      -0.10833740234375,
      0.060272216796875,
      0.0012798309326171875,
      0.12371826171875,
      -0.0214691162109375,
      -0.0654296875,
      0.03887939453125,
      0.034637451171875,
      0.037811279296875,
      -0.0198974609375,
      0.138671875,
      0.006214141845703125,
      0.042999267578125,
      0.12188720703125,
      -0.0352783203125,
      -0.0948486328125,
      -0.046966552734375,
      0.1033935546875,
      -0.02154541015625,
      -0.140380859375,
      -0.06787109375,
      0.033294677734375,
      0.0009784698486328125,
      -0.04266357421875,
      0.01715087890625,
      -0.0870361328125,
      -0.0206756591796875,
      -0.01336669921875,
      -0.007091522216796875,
      0.12432861328125,
      0.0799560546875,
      0.06683349609375,
      -0.1142578125,
      0.1346435546875,
      -0.09979248046875,
      -0.1866455078125,
      0.0882568359375,
      0.1314697265625,
      -0.018585205078125,
      -0.15478515625,
      -0.01303863525390625,
      0.18408203125,
      -0.048126220703125,
      0.069091796875,
      0.11138916015625,
      0.08026123046875,
      -0.0880126953125,
      -0.02984619140625,
      -0.11077880859375,
      -0.0222625732421875,
      0.08367919921875,
      -0.02105712890625,
      0.18310546875,
      0.0204315185546875,
      0.05194091796875,
      -0.181884765625,
      0.061431884765625,
      -0.05401611328125,
      -0.07550048828125,
      -0.19677734375,
      -0.061614990234375,
      0.0032806396484375,
      0.018798828125,
      -0.0192108154296875,
      -0.130126953125,
      -0.0302734375,
      0.1014404296875,
      -0.0679931640625,
      0.036163330078125,
      0.044525146484375,
      -0.06298828125,
      0.0313720703125,
      -0.08221435546875,
      0.419921875,
      0.045867919921875,
      0.10760498046875,
      0.09454345703125,
      0.041717529296875,
      -0.010589599609375,
      0.08343505859375,
      -0.032501220703125,
      0.1531982421875,
      -0.0006604194641113281,
      -0.060302734375,
      0.041412353515625,
      0.0960693359375,
      0.061798095703125,
      -0.103515625,
      0.0201873779296875,
      0.0014219284057617188,
      -0.050567626953125,
      0.04754638671875,
      0.0111083984375,
      -0.0789794921875,
      -0.16943359375,
      -0.0026302337646484375,
      -0.038360595703125,
      -0.03277587890625,
      -0.11376953125,
      -0.10986328125,
      -0.0316162109375,
      -0.11212158203125,
      0.064697265625,
      0.090576171875,
      0.07183837890625,
      -0.0249786376953125,
      0.0026302337646484375,
      0.005279541015625,
      0.00450897216796875,
      0.1458740234375,
      -0.19091796875,
      -0.08343505859375,
      -0.0170745849609375,
      -0.035400390625,
      0.0863037109375,
      -0.0574951171875,
      0.0467529296875,
      -0.0286407470703125,
      0.045989990234375,
      -0.0193634033203125,
      0.1536865234375,
      0.04315185546875,
      0.1395263671875,
      -0.090087890625,
      0.1043701171875,
      0.0499267578125,
      -0.1927490234375,
      -0.1309814453125,
      -0.0243072509765625,
      0.1900634765625,
      -0.045135498046875,
      0.017181396484375,
      -0.0323486328125,
      -0.0123748779296875,
      -0.08294677734375,
      0.056640625,
      0.0552978515625,
      -0.08636474609375,
      0.1611328125,
      -0.115234375,
      -0.0247039794921875,
      0.06585693359375,
      -0.08770751953125,
      -0.0653076171875,
      -0.1065673828125,
      -0.008697509765625,
      0.1014404296875,
      -0.15576171875,
      -0.12261962890625,
      -0.007785797119140625,
      -0.10723876953125,
      -0.0198211669921875,
      0.1878662109375,
      0.1279296875,
      -0.07708740234375,
      0.045166015625,
      -0.0004134178161621094,
      0.050628662109375,
      -0.0224151611328125,
      0.06707763671875,
      -0.040008544921875,
      -0.069580078125,
      -0.052337646484375,
      0.06597900390625,
      0.06365966796875,
      -0.0740966796875,
      -0.085693359375,
      -0.050628662109375,
      -0.150390625,
      -0.00885772705078125,
      0.004833221435546875,
      0.0274505615234375,
      0.08245849609375,
      -0.118896484375,
      0.01422119140625,
      -0.03826904296875,
      0.01346588134765625,
      0.004604339599609375,
      -0.04949951171875,
      -0.1553955078125,
      0.003170013427734375,
      0.131591796875,
      0.045257568359375,
      -0.02496337890625,
      -0.05517578125,
      -0.11492919921875,
      0.0248565673828125,
      0.1781005859375,
      0.004817962646484375,
      -0.0232086181640625,
      -0.09814453125,
      -0.1669921875,
      0.00936126708984375,
      -0.08245849609375,
      0.07489013671875,
      -0.126953125,
      -0.00998687744140625,
      0.0814208984375,
      0.0947265625,
      0.0270843505859375,
      0.00998687744140625,
      -0.0037364959716796875,
      0.1016845703125,
      -0.0751953125,
      -0.043182373046875,
      -0.00290679931640625,
      0.05303955078125,
      0.107421875,
      -0.0457763671875,
      -0.06549072265625,
      -0.0305328369140625,
      -0.09100341796875,
      -0.064208984375,
      -0.1275634765625,
      -0.004638671875,
      -0.1058349609375,
      0.0850830078125,
      -0.1153564453125,
      -0.11602783203125,
      -0.08111572265625,
      -0.0869140625,
      0.08203125,
      -0.0269622802734375,
      0.044891357421875,
      0.02618408203125,
      0.03143310546875,
      -0.0848388671875,
      -0.058685302734375,
      0.0228424072265625,
      0.047027587890625,
      -0.07501220703125,
      0.06268310546875,
      0.1724853515625,
      0.0151824951171875,
      0.03662109375,
      -0.0298004150390625,
      0.095703125,
      -0.07110595703125,
      0.103759765625,
      -0.0093536376953125,
      0.0029926300048828125,
      -0.01800537109375,
      -0.06353759765625,
      0.004138946533203125,
      0.1055908203125,
      0.027557373046875,
      0.05126953125,
      0.0291748046875,
      -0.06451416015625,
      0.133544921875,
      0.09649658203125,
      -0.127685546875,
      0.004749298095703125,
      0.01557159423828125,
      0.00527191162109375,
      0.09716796875,
      0.06011962890625,
      -0.103271484375,
      -0.1494140625,
      0.04931640625,
      0.02587890625,
      -0.126708984375,
      0.00249481201171875,
      0.1929931640625,
      -0.07647705078125,
      0.2415771484375,
      0.273681640625,
      -0.04327392578125,
      0.005157470703125,
      0.041046142578125,
      0.08642578125,
      -0.034515380859375,
      -0.044403076171875,
      -0.04180908203125,
      -0.03515625,
      0.1573486328125,
      0.128662109375,
      0.07470703125,
      0.06500244140625,
      -0.04205322265625,
      -0.0970458984375,
      0.1085205078125,
      0.08154296875,
      0.1312255859375,
      -0.04095458984375,
      -0.045867919921875,
      0.1915283203125,
      0.06561279296875,
      0.1278076171875,
      -0.157958984375,
      -0.005107879638671875,
      0.196044921875,
      0.09014892578125,
      -0.0687255859375,
      0.0753173828125,
      -0.0657958984375,
      -0.2386474609375,
      0.0360107421875,
      0.01010894775390625,
      0.007965087890625,
      -0.07366943359375,
      0.10565185546875,
      -0.0523681640625,
      0.0154571533203125,
      0.00418853759765625,
      -0.06304931640625,
      -0.08575439453125,
      -0.0177154541015625,
      -0.06903076171875,
      -0.0249481201171875,
      0.01181793212890625,
      0.017547607421875,
      0.1549072265625,
      -0.0499267578125,
      0.01192474365234375,
      -0.0640869140625,
      -0.023101806640625,
      -0.06414794921875,
      0.08343505859375,
      0.0191497802734375,
      -0.034820556640625,
      -0.068359375,
      -0.10662841796875,
      0.08355712890625,
      -0.037933349609375,
      -0.0176544189453125,
      -0.035675048828125,
      0.0066070556640625,
      -0.04974365234375,
      0.092041015625,
      -0.07623291015625,
      -0.02679443359375,
      0.185791015625,
      0.040618896484375,
      0.0235137939453125,
      0.0281524658203125,
      0.007511138916015625,
      -0.0282440185546875,
      0.022491455078125,
      0.10662841796875,
      -0.039703369140625,
      0.0207061767578125,
      -0.062744140625,
      0.07769775390625,
      -0.0899658203125,
      0.0579833984375,
      -0.045135498046875,
      -0.1368408203125,
      -0.0251007080078125,
      0.005527496337890625,
      -0.07794189453125,
      -0.01232147216796875,
      -0.049041748046875,
      -0.07806396484375,
      -0.048248291015625,
      -0.09234619140625,
      0.00543975830078125,
      0.00882720947265625,
      -0.03936767578125,
      0.11920166015625,
      0.1636962890625,
      -0.174560546875,
      -0.071533203125,
      0.11138916015625,
      0.0005245208740234375,
      -0.004421234130859375,
      0.0838623046875,
      -0.0127410888671875,
      -0.041229248046875,
      -0.13623046875,
      -0.12066650390625,
      0.0001417398452758789,
      0.142333984375,
      0.05902099609375,
      -0.000629425048828125,
      0.054229736328125,
      -0.146484375,
      0.07537841796875,
      -0.09716796875,
      -0.032562255859375,
      -0.0138397216796875,
      0.0199127197265625,
      -0.06268310546875,
      -0.11602783203125,
      -0.1253662109375,
      -0.056365966796875,
      -0.1282958984375,
      -0.08203125,
      0.052734375,
      -0.0157623291015625,
      -0.0716552734375,
      -0.08380126953125,
      0.1529541015625,
      -0.03857421875
    ]
  }
}